100 10
0 0.0015362725 0.02911942 -0.0125741735 -0.024009509 -0.012193374 -0.027053267 0.033176277 -0.03002643 0.047132183 0.034896646
1 -0.043679245 0.0021466985 -0.02460028 0.0079547055 -0.005288232 -0.00921132 0.0343643 -0.0048457608 -0.0049797595 -0.000408113
2 -0.030137897 0.03447405 0.03458182 0.007558465 0.010561191 -0.038804155 -0.018398434 0.0007222481 0.018944625 -0.021336092
3 -0.0030544475 -0.038515497 -0.0033304803 -0.015612386 0.0029686987 0.046015743 0.014493052 0.02750643 -0.02155069 0.020519365
4 0.012735937 0.028506149 0.048584428 0.012772042 -0.0138392225 0.032099012 -0.042427845 0.018877838 -0.048890777 -0.046597745
5 0.018181529 -0.020742828 0.024301324 -0.015836775 0.0026075616 -0.0015737601 -0.029865682 -0.029713571 0.008023541 0.022242803
6 -0.027020324 -0.01833544 -0.047307022 0.014310379 0.021412741 -0.0039350316 0.0013693795 0.041463826 -0.033293113 0.0115230605
7 0.01841965 0.049127128 0.0037240162 0.036334965 -0.038250934 0.044281986 -0.04618575 -0.03616491 0.049440417 -0.048775364
8 0.022646327 0.047987167 0.009246301 0.03896759 0.03686711 -0.04703324 0.0474038 -0.023786122 0.049386706 -0.027610673
9 0.044159282 0.040601563 0.030165244 0.043825094 0.0021225102 -0.028702652 0.02992465 0.0038569346 -0.017534167 0.0013619736
10 0.008660924 0.021016303 0.033093188 -0.039619587 -0.026416851 -0.018793935 -0.037588954 -0.018312208 -0.03801328 0.018148165
11 0.042167973 -0.034475137 -0.029372865 -0.04624337 -0.025251223 0.016083676 -0.046262562 -0.017422646 0.044377554 -0.002610784
12 0.04937425 -0.018828774 0.021520857 0.016500596 0.04001129 0.025703292 0.016047973 0.027663816 0.048944313 -0.04898895
13 0.03254884 0.021115799 -0.039805252 -0.01798945 0.030403163 -0.040506344 -0.032931954 -0.03880615 -0.0047834106 -0.034700014
14 0.010139715 0.0077367015 0.00733608 -0.0025300793 0.04665414 0.041042004 0.002859898 0.036877256 0.03732488 -0.0012097135
15 -0.0063274316 0.027770076 0.007789105 0.036583032 -0.0075478964 -0.0005670488 0.02782755 0.021598171 -0.012002457 0.032003153
16 -0.005244732 -0.043917824 0.035107013 0.012064405 -0.03411548 -0.04073598 0.035169188 0.030908223 -0.01429525 0.035047684
17 -0.017211728 -0.006008517 -0.00793289 0.0008528419 -0.043998927 -0.02669989 -0.038474243 -0.042202543 0.002767425 0.010788076
18 0.023467246 -0.009682078 -0.031445153 0.0016888157 -0.032981265 0.007672906 -0.02100469 -0.046019983 -0.023841018 -0.002488155
19 0.00013999268 -0.02834633 0.015292514 0.018019099 -0.01202964 -0.0473032 0.019753989 -0.0167908 0.029793177 -0.01362443
20 0.025239352 -0.0038501546 -0.044500392 -0.027163906 0.027477268 0.018280018 -0.013684012 0.041117188 -0.017281912 -0.04430564
21 -0.004648268 -0.01364385 -0.047795575 -0.036268495 0.03448486 -0.010235995 0.04319006 -0.025538445 0.022779617 -0.020899951
22 0.026867647 -0.031825587 -0.014228903 -0.045202322 -0.015881538 -0.001963187 -0.037453204 -0.015719809 0.005061835 -0.0015265234
23 0.006091617 0.029213052 0.013617601 0.026341844 0.006285727 -0.020549042 -0.03741002 -0.0024269037 -0.033847947 0.0051031895
24 0.016323756 0.039012942 0.017935652 -0.03281176 0.04480576 0.037323866 0.0127452575 0.0012188181 -0.015978001 -0.04124806
25 0.03243495 0.04013435 0.016073626 0.010986596 0.044221867 -0.0052229576 -0.048312027 -0.012558706 -0.04823708 0.018916976
26 0.03429455 -0.0014162362 -0.044586964 -0.01258304 0.016392019 -0.020492136 0.026422534 -0.038606025 0.007961143 -0.014859032
27 0.03999808 0.026570205 -0.04807126 -0.034363784 0.039829496 0.042489726 0.004812248 -0.009470385 -0.036569048 0.034802962
28 0.028705698 0.031832162 0.023860153 -0.017903976 -0.029018892 0.007328313 0.032946985 0.0127695985 0.022882167 -0.007965099
29 0.034360465 -0.011630662 0.026360068 0.027680095 -0.003528446 -0.01543162 -0.018157125 0.04369911 -0.02719295 0.04918849
30 0.012017362 -0.048437085 -0.02070008 0.048160654 -0.019679874 -0.046522774 -0.0065056793 0.014306162 -0.01846268 0.015318189
31 -0.009880602 -0.04800409 0.02320059 -0.021292055 0.031501915 0.039457295 -0.046258878 -0.02684818 0.034653146 0.0065974817
32 -0.042357065 -0.0073544607 0.023762222 -0.011501916 -0.006594293 0.020801391 -0.0013219342 -0.041191645 0.023820478 0.03609762
33 0.038398925 0.04063839 0.03690773 0.036562305 -0.049111646 -0.03777069 -0.006857086 -0.016152132 -0.04471736 0.0029140115
34 0.018931296 -0.034026064 0.0018679127 0.01478586 0.029986154 0.04669902 0.04314891 -0.04758611 0.045793142 -0.018920159
35 -0.025288254 -0.027767485 0.0050006993 0.0350918 -0.025808025 -0.0010754056 -0.019021744 -0.039838493 -0.049004924 -0.040739857
36 0.041192982 0.04657582 -0.013214152 0.036418747 -0.018148124 0.012430787 -0.0025587492 0.04365104 0.011764973 0.04061069
37 0.03937507 0.029626269 0.014782328 0.0018222407 -0.002054967 0.0496783 0.048128787 0.042246576 -0.040404655 0.018919114
38 0.009517156 0.017445553 0.017354164 -0.006259192 0.038418863 0.044979814 0.033444893 0.0363863 -0.026159966 -0.030392123
39 -0.020982182 0.0063041225 0.019720767 0.006647378 -0.022076715 0.024255548 0.047642495 -0.03238194 -0.027072633 0.0020400286
40 0.022453327 -0.04558534 0.041864235 -0.016224153 -0.030003518 0.029913437 0.022748616 -0.028892959 -0.049604665 0.034188773
41 -0.03722596 -0.04125213 0.0075181834 -0.045766275 0.049966726 0.037485447 -0.04401038 -0.047392007 0.009851217 -0.00065585226
42 0.006563533 -0.020990063 0.012308806 -0.02355854 -0.02962761 0.028366867 -0.036656976 0.029847074 -0.013149124 0.033670332
43 0.041089613 -0.04765128 -0.0036594793 0.02312952 -0.03888563 0.001112707 -0.03843673 -0.045115408 -0.041658122 -0.04695036
44 0.0009817071 -0.004146088 0.015042733 0.041973 0.022379939 -0.0050258413 -0.028453697 -0.012517471 -0.043724637 0.04941869
45 0.028127681 -0.021620983 0.04834864 0.03841332 -0.048482783 0.0109509155 -0.013058029 0.038970094 0.032314252 -0.015292726
46 0.044217143 0.042979155 0.03321446 -0.043213475 -0.046957105 0.047108572 -0.026776945 -0.018613983 0.017799165 -0.0070143715
47 0.04944131 -0.04191318 -0.04355293 0.017284576 0.034854945 -0.0073778704 -0.03228283 -0.014402974 -0.042639595 0.019178811
48 -0.009830512 -0.007868104 -0.033860154 -0.010896664 -0.030215997 0.008259326 -0.0033375025 -0.018244468 0.004728563 0.03692634
49 0.012668107 -0.03720404 0.03848217 -0.036421783 -0.03621774 -0.031510197 -0.024483306 0.046919983 0.0284785 0.043392215
50 -0.017444707 0.03702328 0.032487478 0.048103545 -0.039164506 -0.042967834 0.025101092 -0.006930638 -0.020101607 0.028065
51 -0.02914772 0.040525164 0.0044913776 0.03863216 -0.019180376 0.01198579 -0.034221996 -0.014343046 0.048874337 -0.032048274
52 0.014587525 -0.0042569228 0.046318535 -0.02046501 0.04636586 0.008277439 0.04971953 0.013034854 0.014195088 -0.02654841
53 -0.02956648 0.003634572 -0.032698847 -0.0056353807 -0.0143325925 0.014248338 0.03660131 -0.00872951 0.045912605 0.043641653
54 0.018040482 0.036231373 0.00908757 -0.006797511 0.03485238 -0.03129182 0.03859419 -0.007270284 0.016588334 -0.037504703
55 0.010775823 -0.004818607 -0.015215058 0.012721855 -0.019245053 -0.014135916 -0.026484782 0.014217082 0.0045890026 0.0029282384
56 -0.008952409 -0.03953492 0.03625113 -0.042922087 0.0053636543 -0.04884243 -0.026734902 0.024186265 0.046396483 0.036887202
57 -0.011331104 -0.044736095 0.006437104 0.045019235 0.0111374855 0.028619256 -0.011241574 0.010882162 0.020794693 0.017344747
58 -0.022002537 -0.02395506 -0.022726256 -0.022227168 0.04172409 -0.033527426 0.047412228 -0.00917533 0.0136195235 0.047634374
59 -0.027532667 -0.0057290606 -0.0444919 -0.030212283 -0.01526428 0.010315061 0.01957703 -0.034789264 -0.042957034 -0.0044590607
60 -0.033773966 -0.041748066 -0.04077027 0.045740683 -0.030961663 0.019547272 0.024657723 0.03944241 -0.04601867 0.008779328
61 0.0032340474 -0.018675815 0.0114916265 -0.00075532123 0.018658366 -0.049709883 -0.0068003163 -0.012214255 -0.04897755 -0.020781457
62 -0.041225582 0.031469416 -0.039586354 0.013973776 0.02459966 0.033932146 -0.040442593 0.048639383 0.020929907 -0.0001983121
63 0.03312951 -0.047382213 0.022688266 0.039241705 0.04839837 -0.00032108277 0.045837197 0.028033879 -0.01669389 -0.015844524
64 -0.029749012 0.005643815 -0.00014674664 0.00638365 0.03116313 0.047837246 0.011592902 0.03992637 0.042222362 0.04124007
65 -0.048568834 0.043052707 0.048050795 0.030494247 0.005008273 0.018829156 0.023498174 -0.026297664 0.042015407 0.04435854
66 0.033830527 0.0024385452 0.00312813 0.04705457 -0.023656577 -0.010024589 0.028948728 0.02868541 0.01122579 0.0074653216
67 0.01647729 -0.0413403 -0.03433413 -0.023628725 0.030880664 -0.011253007 -0.049726784 -0.04911946 -0.0066329017 -0.03416364
68 -0.03229501 0.020404447 0.02988455 -0.00013295561 0.03666347 0.004332401 0.0431883 0.040471982 0.004763007 -0.045716565
69 0.0357487 0.004509855 0.044793006 0.0050755367 0.038046096 -0.0033480525 -0.032750614 0.025041874 0.025071513 -0.021341456
70 0.028355177 -0.016439833 0.041333366 -0.006223358 -0.046155628 -8.1807375e-05 -0.007072389 -0.03463761 0.027572129 -0.002471704
71 0.016789597 -0.0036407337 -0.026911205 0.034920294 0.020975072 0.011425503 -0.0027028508 0.0027963445 0.03293774 0.009755891
72 0.03947339 0.042481665 0.032774154 0.049856614 -0.016074795 0.010365099 0.017531458 -0.030704373 0.017872345 -0.034698565
73 0.032533225 0.013595987 0.021799501 0.03558774 -0.02192775 0.0048619285 -0.013493251 0.047410127 -0.02087149 0.009630311
74 -0.022152085 -0.015513163 -0.028188987 0.015758973 0.0020919964 -0.038293343 0.021006402 0.025540683 -0.030501068 -0.04444312
75 -0.008170765 -0.0025048144 -0.0031150691 0.017453793 -0.048045732 0.0242914 -0.020784212 0.02177779 -0.026426917 0.010592498
76 -0.043290343 -0.0012259781 -0.04601815 -0.046992965 -0.014622159 0.049517598 -0.010031879 0.026061665 -0.014211237 0.006774664
77 0.03381182 -0.049811542 -0.020471072 -0.028531803 -0.031886805 0.00835545 0.027123455 0.029541243 -0.039912313 -0.028467303
78 0.027798843 -0.048502453 -0.004912235 0.0005864091 0.041641984 -0.0015412793 0.047012534 0.014685478 -0.038025968 0.015380446
79 0.03989959 0.0061097667 -0.032416366 -0.0022519045 -0.008315206 0.04565916 -0.0003110394 0.014800999 0.020677682 -0.00805182
80 0.026114572 0.04268289 -0.049292743 0.004886072 0.007882614 0.016209442 0.033666443 0.025443245 -0.033022724 -0.014978994
81 -0.029502649 0.036231127 -0.009877749 0.026589703 -0.049265344 -0.04967169 -0.04837519 -0.027025675 -0.019688314 0.032070678
82 -0.001203388 -0.046524744 -0.012516774 0.029993448 -0.0010430217 -0.015229791 0.008497089 -0.016887654 -0.012808006 0.028201673
83 0.006833978 -0.029710174 -0.048146963 0.033310894 -0.012413986 -0.032535333 0.019131806 0.04234015 -0.011082459 0.017146263
84 -0.034228347 0.0282331 -0.029693186 -0.01128488 -0.049103618 -0.04525832 -0.025737733 -0.04092281 0.012772817 0.046632502
85 -0.0040689334 -0.003582716 -0.048892852 -0.044050526 -0.002463162 -0.031371534 0.0039045215 0.036628176 0.0050356314 -0.049251724
86 0.01581959 0.004188724 0.04258438 0.036577564 -0.036969095 0.015384253 0.0014036484 0.021360759 -0.030897481 -0.0006600134
87 0.04965395 -0.0075545423 -0.004938651 -0.04031927 0.04660323 -0.036430944 -0.005307406 0.014452454 -0.021548068 0.022072155
88 0.037378464 0.00510633 0.012450617 -0.04754221 0.0015683472 -0.028263915 0.010155119 0.043236975 -0.045064688 -0.00507183
89 0.009374063 0.034272615 0.00914808 -0.03365626 -0.025708735 -0.03444498 0.014365707 -0.017556477 0.015645806 -0.03291349
90 -0.007476248 0.03704292 0.026844915 0.019417156 0.012954202 0.027948681 0.034570757 -2.9556453e-05 0.01446173 -0.013176333
91 0.043293532 -0.030187333 -0.049930662 0.0070096143 -0.026237685 0.021431167 0.033881236 0.035774466 0.049152922 -0.019361068
92 -0.0023558363 -0.04691834 0.01684555 -0.016404372 0.01690488 0.030853722 0.031099867 -0.03610583 -0.020569647 0.0014402047
93 -0.042111 -0.02897253 0.049735833 0.024340104 0.03847632 -0.0051984414 -0.023685986 -0.019526882 -0.022557361 -0.015780218
94 0.03251258 -0.037930608 0.010160249 0.026718695 0.022435192 -0.038290642 -0.011060905 -0.04315592 -0.017235506 -0.040268578
95 -0.01682328 -0.014291417 -0.03427872 0.00804304 0.025807898 -0.048417818 -0.033222824 0.02575824 -0.04360596 -0.0031262748
96 0.013596442 0.020075168 -0.0462147 -0.0477477 -0.021236015 -0.04793802 -0.01083402 -0.03478377 0.012325585 -0.009666301
97 -0.029241813 0.018645335 -0.010640413 0.024239246 0.0020739026 -0.02488466 0.046061937 0.023471761 0.007030975 -0.04626921
98 -0.041067023 -0.0076226518 -0.010537554 0.047111858 0.04293516 -0.008550875 0.005524654 0.035456654 0.03479025 -0.018620014
99 -0.040870894 0.01816627 0.0462527 0.023509812 0.002525337 0.048545096 0.04654358 -0.02315464 0.047191944 0.009346403
